<?xml version="1.0" encoding="US-ASCII"?>

<!-- DTD for the XMLBIF 0.3 format -->
<!DOCTYPE BIF [
<!ELEMENT BIF ( NETWORK )*>
   <!ATTLIST BIF VERSION CDATA #REQUIRED>
<!ELEMENT NETWORK ( NAME, ( PROPERTY | VARIABLE | DEFINITION )* )>
<!ELEMENT NAME (#PCDATA)>
<!ELEMENT VARIABLE ( NAME, ( OUTCOME |  PROPERTY )* ) >
<!ATTLIST VARIABLE TYPE (nature|decision|utility) "nature">
<!ELEMENT OUTCOME (#PCDATA)>
<!ELEMENT DEFINITION ( FOR | GIVEN | TABLE | PROPERTY )* >
<!ELEMENT FOR (#PCDATA)>
<!ELEMENT GIVEN (#PCDATA)>
<!ELEMENT TABLE (#PCDATA)>
<!ELEMENT PROPERTY (#PCDATA)>
]>

<BIF VERSION="0.3">
<NETWORK>

<VARIABLE TYPE="nature">
   <NAME>Metastatic Cancer</NAME>
   <OUTCOME>Present</OUTCOME>
   <OUTCOME>Absent</OUTCOME>
   <PROPERTY>position = (-59.46171, -126.82241)</PROPERTY>
</VARIABLE>

<VARIABLE TYPE="nature">
   <NAME>Serum Calcium</NAME>
   <OUTCOME>Increased</OUTCOME>
   <OUTCOME>Not_Increased</OUTCOME>
   <PROPERTY>position = (-139.80168, 2.8692853)</PROPERTY>
</VARIABLE>

<VARIABLE TYPE="nature">
   <NAME>Brain Tumour</NAME>
   <OUTCOME>Present</OUTCOME>
   <OUTCOME>Absent</OUTCOME>
   <PROPERTY>position = (85.15027, -1.7215712)</PROPERTY>
</VARIABLE>

<VARIABLE TYPE="nature">
   <NAME>Coma</NAME>
   <OUTCOME>Present</OUTCOME>
   <OUTCOME>Absent</OUTCOME>
   <PROPERTY>position = (-56.018574, 124.526985)</PROPERTY>
</VARIABLE>

<VARIABLE TYPE="nature">
   <NAME>Severe Headaches</NAME>
   <OUTCOME>Present</OUTCOME>
   <OUTCOME>Absent</OUTCOME>
   <PROPERTY>position = (128.7634, 126.82241)</PROPERTY>
</VARIABLE>


<DEFINITION>
   <FOR>Metastatic Cancer</FOR>
   <TABLE> 0.2 0.8</TABLE>
</DEFINITION>

<DEFINITION>
   <FOR>Serum Calcium</FOR>
   <GIVEN>Metastatic Cancer</GIVEN>
   <TABLE> 0.8 0.2 0.2 0.8</TABLE>
</DEFINITION>

<DEFINITION>
   <FOR>Brain Tumour</FOR>
   <GIVEN>Metastatic Cancer</GIVEN>
   <TABLE> 0.2 0.8 0.05 0.95</TABLE>
</DEFINITION>

<DEFINITION>
   <FOR>Coma</FOR>
   <GIVEN>Brain Tumour</GIVEN>
   <GIVEN>Serum Calcium</GIVEN>
   <TABLE> 0.8 0.2 0.8 0.2 0.8 0.2 0.05 0.95</TABLE>
</DEFINITION>

<DEFINITION>
   <FOR>Severe Headaches</FOR>
   <GIVEN>Brain Tumour</GIVEN>
   <TABLE> 0.8 0.2 0.6 0.4</TABLE>
</DEFINITION>


</NETWORK>
</BIF>

