<?xml version="1.0" encoding="US-ASCII"?>

<!-- DTD for the XMLBIF 0.3 format -->
<!DOCTYPE BIF [
<!ELEMENT BIF ( NETWORK )*>
   <!ATTLIST BIF VERSION CDATA #REQUIRED>
<!ELEMENT NETWORK ( NAME, ( PROPERTY | VARIABLE | DEFINITION )* )>
<!ELEMENT NAME (#PCDATA)>
<!ELEMENT VARIABLE ( NAME, ( OUTCOME |  PROPERTY )* ) >
<!ATTLIST VARIABLE TYPE (nature|decision|utility) "nature">
<!ELEMENT OUTCOME (#PCDATA)>
<!ELEMENT DEFINITION ( FOR | GIVEN | TABLE | PROPERTY )* >
<!ELEMENT FOR (#PCDATA)>
<!ELEMENT GIVEN (#PCDATA)>
<!ELEMENT TABLE (#PCDATA)>
<!ELEMENT PROPERTY (#PCDATA)>
]>

<BIF VERSION="0.3">
<NETWORK>

<VARIABLE TYPE="nature">
   <NAME>tampering</NAME>
   <OUTCOME>T</OUTCOME>
   <OUTCOME>F</OUTCOME>
   <PROPERTY>position = (-152.96252, -144.65634)</PROPERTY>
</VARIABLE>

<VARIABLE TYPE="nature">
   <NAME>fire</NAME>
   <OUTCOME>T</OUTCOME>
   <OUTCOME>F</OUTCOME>
   <PROPERTY>position = (-17.989555, -146.65593)</PROPERTY>
</VARIABLE>

<VARIABLE TYPE="nature">
   <NAME>alarm</NAME>
   <OUTCOME>T</OUTCOME>
   <OUTCOME>F</OUTCOME>
   <PROPERTY>position = (-88.97534, -59.673347)</PROPERTY>
</VARIABLE>

<VARIABLE TYPE="nature">
   <NAME>smoke</NAME>
   <OUTCOME>T</OUTCOME>
   <OUTCOME>F</OUTCOME>
   <PROPERTY>position = (38.999035, -63.67255)</PROPERTY>
</VARIABLE>

<VARIABLE TYPE="nature">
   <NAME>leaving</NAME>
   <OUTCOME>T</OUTCOME>
   <OUTCOME>F</OUTCOME>
   <PROPERTY>position = (-103.06419, 21.732838)</PROPERTY>
</VARIABLE>

<VARIABLE TYPE="nature">
   <NAME>report</NAME>
   <OUTCOME>T</OUTCOME>
   <OUTCOME>F</OUTCOME>
   <PROPERTY>position = (-152.44774, 113.2982)</PROPERTY>
</VARIABLE>

<VARIABLE TYPE="decision">
   <NAME>checkSmoke</NAME>
   <OUTCOME>T</OUTCOME>
   <OUTCOME>F</OUTCOME>
   <PROPERTY>position = (-36.190613, 61.856987)</PROPERTY>
</VARIABLE>

<VARIABLE TYPE="nature">
   <NAME>SeeSmoke</NAME>
   <OUTCOME>T</OUTCOME>
   <OUTCOME>F</OUTCOME>
   <PROPERTY>position = (72.86475, 15.559892)</PROPERTY>
</VARIABLE>

<VARIABLE TYPE="decision">
   <NAME>call</NAME>
   <OUTCOME>T</OUTCOME>
   <OUTCOME>F</OUTCOME>
   <PROPERTY>position = (87.2683, 161.65295)</PROPERTY>
</VARIABLE>

<VARIABLE TYPE="utility">
   <NAME>Value</NAME>
   <OUTCOME>Val</OUTCOME>
   <PROPERTY>position = (165.9736, -161.65295)</PROPERTY>
</VARIABLE>


<DEFINITION>
   <FOR>tampering</FOR>
   <TABLE> 0.02 0.98</TABLE>
</DEFINITION>

<DEFINITION>
   <FOR>fire</FOR>
   <TABLE> 0.01 0.99</TABLE>
</DEFINITION>

<DEFINITION>
   <FOR>alarm</FOR>
   <GIVEN>tampering</GIVEN>
   <GIVEN>fire</GIVEN>
   <TABLE> 0.5 0.5 0.85 0.15 0.99 0.01 1.0E-4 0.9999</TABLE>
</DEFINITION>

<DEFINITION>
   <FOR>smoke</FOR>
   <GIVEN>fire</GIVEN>
   <TABLE> 0.9 0.1 0.01 0.99</TABLE>
</DEFINITION>

<DEFINITION>
   <FOR>leaving</FOR>
   <GIVEN>alarm</GIVEN>
   <TABLE> 0.88 0.12 0.0010 0.999</TABLE>
</DEFINITION>

<DEFINITION>
   <FOR>report</FOR>
   <GIVEN>leaving</GIVEN>
   <TABLE> 0.75 0.25 0.01 0.99</TABLE>
</DEFINITION>

<DEFINITION>
   <FOR>checkSmoke</FOR>
   <GIVEN>report</GIVEN>
</DEFINITION>

<DEFINITION>
   <FOR>SeeSmoke</FOR>
   <GIVEN>smoke</GIVEN>
   <GIVEN>checkSmoke</GIVEN>
   <TABLE> 1.0 0.0 0.0 1.0 0.0 1.0 0.0 1.0</TABLE>
</DEFINITION>

<DEFINITION>
   <FOR>call</FOR>
   <GIVEN>SeeSmoke</GIVEN>
   <GIVEN>report</GIVEN>
   <GIVEN>checkSmoke</GIVEN>
</DEFINITION>

<DEFINITION>
   <FOR>Value</FOR>
   <GIVEN>fire</GIVEN>
   <GIVEN>checkSmoke</GIVEN>
   <GIVEN>call</GIVEN>
   <TABLE> -210.0 -5010.0 -200.0 -5000.0 -210.0 -10.0 -200.0 0.0</TABLE>
</DEFINITION>


</NETWORK>
</BIF>

