<?xml version="1.0" encoding="US-ASCII"?>

<!-- DTD for the XMLBIF 0.3 format -->
<!DOCTYPE BIF [
<!ELEMENT BIF ( NETWORK )*>
   <!ATTLIST BIF VERSION CDATA #REQUIRED>
<!ELEMENT NETWORK ( NAME, ( PROPERTY | VARIABLE | DEFINITION )* )>
<!ELEMENT NAME (#PCDATA)>
<!ELEMENT VARIABLE ( NAME, ( OUTCOME |  PROPERTY )* ) >
<!ATTLIST VARIABLE TYPE (nature|decision|utility) "nature">
<!ELEMENT OUTCOME (#PCDATA)>
<!ELEMENT DEFINITION ( FOR | GIVEN | TABLE | PROPERTY )* >
<!ELEMENT FOR (#PCDATA)>
<!ELEMENT GIVEN (#PCDATA)>
<!ELEMENT TABLE (#PCDATA)>
<!ELEMENT PROPERTY (#PCDATA)>
]>

<BIF VERSION="0.3">
<NETWORK>

<VARIABLE TYPE="nature">
   <NAME>A</NAME>
   <OUTCOME>T</OUTCOME>
   <OUTCOME>F</OUTCOME>
   <PROPERTY>position = (-177.98895, 40.15882)</PROPERTY>
</VARIABLE>

<VARIABLE TYPE="nature">
   <NAME>B</NAME>
   <OUTCOME>T</OUTCOME>
   <OUTCOME>F</OUTCOME>
   <PROPERTY>position = (-126.630035, -40.988285)</PROPERTY>
</VARIABLE>

<VARIABLE TYPE="nature">
   <NAME>C</NAME>
   <OUTCOME>T</OUTCOME>
   <OUTCOME>F</OUTCOME>
   <PROPERTY>position = (-65.47625, -129.19284)</PROPERTY>
</VARIABLE>

<VARIABLE TYPE="nature">
   <NAME>D</NAME>
   <OUTCOME>T</OUTCOME>
   <OUTCOME>F</OUTCOME>
   <PROPERTY>position = (-71.93589, 41.987667)</PROPERTY>
</VARIABLE>

<VARIABLE TYPE="nature">
   <NAME>E</NAME>
   <OUTCOME>T</OUTCOME>
   <OUTCOME>F</OUTCOME>
   <PROPERTY>position = (-17.028934, -44.140884)</PROPERTY>
</VARIABLE>

<VARIABLE TYPE="nature">
   <NAME>F</NAME>
   <OUTCOME>T</OUTCOME>
   <OUTCOME>F</OUTCOME>
   <PROPERTY>position = (26.035343, 39.834454)</PROPERTY>
</VARIABLE>

<VARIABLE TYPE="nature">
   <NAME>G</NAME>
   <OUTCOME>T</OUTCOME>
   <OUTCOME>F</OUTCOME>
   <PROPERTY>position = (72.32944, -44.140884)</PROPERTY>
</VARIABLE>

<VARIABLE TYPE="nature">
   <NAME>H</NAME>
   <OUTCOME>T</OUTCOME>
   <OUTCOME>F</OUTCOME>
   <PROPERTY>position = (121.853355, 44.140884)</PROPERTY>
</VARIABLE>

<VARIABLE TYPE="nature">
   <NAME>I</NAME>
   <OUTCOME>T</OUTCOME>
   <OUTCOME>F</OUTCOME>
   <PROPERTY>position = (70.17622, 129.19284)</PROPERTY>
</VARIABLE>

<VARIABLE TYPE="nature">
   <NAME>J</NAME>
   <OUTCOME>T</OUTCOME>
   <OUTCOME>F</OUTCOME>
   <PROPERTY>position = (179.99013, -41.987667)</PROPERTY>
</VARIABLE>


<DEFINITION>
   <FOR>A</FOR>
   <GIVEN>B</GIVEN>
   <TABLE> 0.5 0.5 0.5 0.5</TABLE>
</DEFINITION>

<DEFINITION>
   <FOR>B</FOR>
   <GIVEN>C</GIVEN>
   <TABLE> 0.5 0.5 0.5 0.5</TABLE>
</DEFINITION>

<DEFINITION>
   <FOR>C</FOR>
   <TABLE> 0.5 0.5</TABLE>
</DEFINITION>

<DEFINITION>
   <FOR>D</FOR>
   <GIVEN>B</GIVEN>
   <GIVEN>E</GIVEN>
   <TABLE> 0.5 0.5 0.5 0.5 0.5 0.5 0.5 0.5</TABLE>
</DEFINITION>

<DEFINITION>
   <FOR>E</FOR>
   <GIVEN>C</GIVEN>
   <TABLE> 0.5 0.5 0.5 0.5</TABLE>
</DEFINITION>

<DEFINITION>
   <FOR>F</FOR>
   <GIVEN>E</GIVEN>
   <GIVEN>G</GIVEN>
   <TABLE> 0.5 0.5 0.5 0.5 0.5 0.5 0.5 0.5</TABLE>
</DEFINITION>

<DEFINITION>
   <FOR>G</FOR>
   <TABLE> 0.5 0.5</TABLE>
</DEFINITION>

<DEFINITION>
   <FOR>H</FOR>
   <GIVEN>G</GIVEN>
   <GIVEN>J</GIVEN>
   <TABLE> 0.5 0.5 0.5 0.5 0.5 0.5 0.5 0.5</TABLE>
</DEFINITION>

<DEFINITION>
   <FOR>I</FOR>
   <GIVEN>H</GIVEN>
   <TABLE> 0.5 0.5 0.5 0.5</TABLE>
</DEFINITION>

<DEFINITION>
   <FOR>J</FOR>
   <TABLE> 0.5 0.5</TABLE>
</DEFINITION>


</NETWORK>
</BIF>

