<?xml version="1.0" encoding="US-ASCII"?>

<!-- DTD for the XMLBIF 0.3 format -->
<!DOCTYPE BIF [
<!ELEMENT BIF ( NETWORK )*>
   <!ATTLIST BIF VERSION CDATA #REQUIRED>
<!ELEMENT NETWORK ( NAME, ( PROPERTY | VARIABLE | DEFINITION )* )>
<!ELEMENT NAME (#PCDATA)>
<!ELEMENT VARIABLE ( NAME, ( OUTCOME |  PROPERTY )* ) >
<!ATTLIST VARIABLE TYPE (nature|decision|utility) "nature">
<!ELEMENT OUTCOME (#PCDATA)>
<!ELEMENT DEFINITION ( FOR | GIVEN | TABLE | PROPERTY )* >
<!ELEMENT FOR (#PCDATA)>
<!ELEMENT GIVEN (#PCDATA)>
<!ELEMENT TABLE (#PCDATA)>
<!ELEMENT PROPERTY (#PCDATA)>
]>

<BIF VERSION="0.3">
<NETWORK>

<VARIABLE TYPE="nature">
   <NAME>B</NAME>
   <OUTCOME>T</OUTCOME>
   <OUTCOME>F</OUTCOME>
   <PROPERTY>position = (-93.03654, -116.75646)</PROPERTY>
</VARIABLE>

<VARIABLE TYPE="nature">
   <NAME>A</NAME>
   <OUTCOME>T</OUTCOME>
   <OUTCOME>F</OUTCOME>
   <PROPERTY>position = (-177.95033, -30.515894)</PROPERTY>
</VARIABLE>

<VARIABLE TYPE="nature">
   <NAME>E</NAME>
   <OUTCOME>T</OUTCOME>
   <OUTCOME>F</OUTCOME>
   <PROPERTY>position = (178.95296, -188.40248)</PROPERTY>
</VARIABLE>

<VARIABLE TYPE="nature">
   <NAME>D</NAME>
   <OUTCOME>T</OUTCOME>
   <OUTCOME>F</OUTCOME>
   <PROPERTY>position = (90.05883, -104.81547)</PROPERTY>
</VARIABLE>

<VARIABLE TYPE="nature">
   <NAME>C</NAME>
   <OUTCOME>T</OUTCOME>
   <OUTCOME>F</OUTCOME>
   <PROPERTY>position = (-4.1424165, -17.248114)</PROPERTY>
</VARIABLE>

<VARIABLE TYPE="nature">
   <NAME>F</NAME>
   <OUTCOME>T</OUTCOME>
   <OUTCOME>F</OUTCOME>
   <PROPERTY>position = (75.464264, 86.24057)</PROPERTY>
</VARIABLE>

<VARIABLE TYPE="nature">
   <NAME>G</NAME>
   <OUTCOME>T</OUTCOME>
   <OUTCOME>F</OUTCOME>
   <PROPERTY>position = (164.3584, 188.40248)</PROPERTY>
</VARIABLE>


<DEFINITION>
   <FOR>B</FOR>
   <TABLE> 0.7 0.3</TABLE>
</DEFINITION>

<DEFINITION>
   <FOR>A</FOR>
   <GIVEN>B</GIVEN>
   <TABLE> 0.88 0.12 0.38 0.62</TABLE>
</DEFINITION>

<DEFINITION>
   <FOR>E</FOR>
   <TABLE> 0.91 0.09</TABLE>
</DEFINITION>

<DEFINITION>
   <FOR>D</FOR>
   <GIVEN>E</GIVEN>
   <TABLE> 0.04 0.96 0.84 0.16</TABLE>
</DEFINITION>

<DEFINITION>
   <FOR>C</FOR>
   <GIVEN>B</GIVEN>
   <GIVEN>D</GIVEN>
   <TABLE> 0.93 0.07 0.33 0.67 0.53 0.47 0.83 0.17</TABLE>
</DEFINITION>

<DEFINITION>
   <FOR>F</FOR>
   <GIVEN>C</GIVEN>
   <TABLE> 0.45 0.55 0.85 0.15</TABLE>
</DEFINITION>

<DEFINITION>
   <FOR>G</FOR>
   <GIVEN>F</GIVEN>
   <TABLE> 0.26 0.74 0.96 0.04</TABLE>
</DEFINITION>


</NETWORK>
</BIF>

